svm_type c_svc
kernel_type rbf
gamma 0.0078125
nr_class 4
total_sv 12
rho 0.00130796 0.000821329 -0.00040787 0.00145409 -0.00028455 -0.00137291
label 1 2 3 4
nr_sv 3 3 3 3
SV
0.03125 0.03125 0.03125 1:1 2:0.904974 3:-0.396524 4:0.383392 5:0.416202 6:-0.676776 7:0.582045 8:0.812541 9:0.239137 10:-0.921526 11:-0.0728703 12:-0.656655 13:-0.707048 14:-0.731786 15:-0.621251 16:0.281263 17:0.671417 18:-0.81778 19:-0.628628 20:-0.667632 21:0.109369 22:-0.915115 23:-1 24:1 25:0.278406 26:-0.447121 27:-0.630019 28:0.812454 29:-0.5985 30:-1 31:-1 32:1 33:-0.176512 34:-0.630236 35:0.166274 36:-1 37:-0.263374 38:0.78708 39:0.297883 40:-0.311047 41:0.0546068 42:-0.795773 43:0.830163 44:0.449981 45:-0.907884 46:-1 47:-0.322531 48:-0.615646 49:0.131367 50:0.2347 51:-0.168673 52:-0.102599 53:-1 54:-0.673452 55:1 56:1 57:-0.784193 
0.03125 0.03125 0.03125 1:0.805972 2:0.290163 3:-0.713866 4:-0.0241078 5:0.682193 6:-1 7:1 8:0.227562 9:-0.637409 10:-1 11:0.174649 12:-0.313532 13:-0.861099 14:-0.491382 15:-0.221204 16:-0.0888889 17:1 18:-0.2843 19:-0.647881 20:0.480858 21:0.0518872 22:-0.471557 23:0.0933579 24:0.625366 25:-0.393933 26:-0.266093 27:-0.226792 28:0.374814 29:0.772047 30:0.666692 31:-0.182711 32:0.35452 33:-0.0881398 34:-1 35:-0.115338 36:-0.612716 37:-0.80431 38:0.694483 39:-0.25027 40:-0.362526 41:1 42:-0.612695 43:1 44:-0.656273 45:-1 46:-0.36474 47:-0.415288 48:-1 49:-0.0805577 50:0.155654 51:-1 52:0.630829 53:-0.806468 54:-0.69034 55:0.050138 56:0.734276 57:-0.386116 
0.03125 0.03125 0.03125 1:0.926761 2:-0.0991361 3:-0.0010815 4:-0.931824 5:1 6:-0.643345 7:0.745663 8:1 9:-0.393862 10:-0.906072 11:0.0653438 12:-1 13:-1 14:-0.40802 15:-0.296336 16:-0.646576 17:0.202369 18:-0.0994896 19:-0.180386 20:1 21:-0.265514 22:-0.86393 23:-0.0456827 24:0.261044 25:0.0579885 26:-0.633952 27:-0.00433906 28:1 29:-0.835559 30:-0.353484 31:-1 32:0.57636 33:-0.0671873 34:-0.591991 35:-0.227839 36:-0.549241 37:0.211395 38:0.577546 39:1 40:-0.482261 41:-0.418157 42:-0.661948 43:0.720059 44:1 45:-0.986411 46:-0.47445 47:0.356198 48:-0.151734 49:-0.643303 50:0.672441 51:-0.877365 52:-0.294411 53:-0.549558 54:-1 55:-0.0452138 56:0.704453 57:-1 
-0.03125 0.03125 0.03125 1:-0.0398704 2:1 3:-0.260796 4:0.34952 5:0.56489 6:-1 7:-1 8:0.585775 9:-1 10:-0.248154 11:-1 12:0.695888 13:0.435434 14:-1 15:0.941312 16:0.17704 17:-0.0162191 18:0.0450979 19:-0.545102 20:-0.27336 21:0.630627 22:-0.80375 23:0.0593358 24:-0.300102 25:-0.021334 26:-0.864547 27:-1 28:-0.555958 29:0.701496 30:-0.282232 31:-0.472113 32:-1 33:-0.30876 34:-0.0941449 35:1 36:-0.249484 37:1 38:-1 39:0.328714 40:-1 41:-1 42:-0.874907 43:0.931501 44:-1 45:-0.653893 46:-0.391585 47:0.627713 48:-0.5292 49:-0.60408 50:-0.666851 51:-0.781241 52:0.147597 53:1 54:1 55:-0.974558 56:-0.25 57:-0.206939 
-0.03125 0.03125 0.03125 1:0.00378316 2:0.891389 3:-0.650444 4:0.650652 5:0.465876 6:-0.251107 7:-1 8:0.199788 9:-0.682236 10:-0.984317 11:-0.248204 12:0.551923 13:-0.151595 14:-0.689281 15:0.153485 16:-0.257893 17:-0.246504 18:1 19:-1 20:0.152262 21:0.799097 22:-0.836691 23:0.335793 24:0.323874 25:0.851091 26:-1 27:0.0743751 28:-1 29:0.928454 30:-1 31:0.248083 32:-0.669032 33:-0.533864 34:-0.143276 35:0.89138 36:-0.0536195 37:0.682193 38:-0.585964 39:-0.0414468 40:-0.872702 41:-0.389133 42:-1 43:0.479495 44:-0.580085 45:-0.98159 46:-0.173446 47:0.997137 48:-0.332103 49:-1 50:-0.994735 51:-0.833856 52:0.717907 53:0.891374 54:0.891402 55:-0.656346 56:0.0649277 57:1 
-0.03125 0.03125 0.03125 1:0.0844075 2:0.23854 3:0.029973 4:1 5:0.0119065 6:-0.632256 7:-0.400067 8:-1 9:-0.851638 10:-0.900952 11:-0.648991 12:1 13:1 14:-0.694843 15:-0.13404 16:-1 17:-0.26172 18:0.618572 19:-0.788738 20:-0.109541 21:0.00979807 22:-0.283796 23:-0.0160148 24:0.625366 25:1 26:-0.496745 27:-0.49838 28:-1 29:0.885373 30:1 31:-0.509627 32:-0.349839 33:1 34:-0.158518 35:0.592392 36:-0.0704557 37:0.0550127 38:-0.593375 39:0.785646 40:-0.45668 41:-1 42:-0.651439 43:-0.210773 44:-1 45:-0.584761 46:-0.709827 47:-0.584999 48:-0.562657 49:-0.0805577 50:-1 51:0.0492765 52:1 53:0.857777 54:-0.256866 55:-1 56:-0.86084 57:0.227769 
-0.03125 -0.03125 0.03125 1:-0.138844 2:-0.24272 3:-0.160294 4:-0.130217 5:-0.352193 6:0.124333 7:0.467432 8:-0.279464 9:-0.190623 10:-0.29211 11:-0.479559 12:-0.449629 13:-0.694298 14:-0.626794 15:-0.990969 16:-0.777204 17:-1 18:-0.584825 19:-0.741627 20:-0.135206 21:0.697822 22:1 23:-0.398376 24:-1 25:-0.221829 26:1 27:0.0758418 28:-0.747866 29:1 30:-0.18473 31:-0.550284 32:-0.403745 33:-0.918432 34:0.543428 35:-0.188666 36:-0.715824 37:0.0776335 38:0.491811 39:-0.155616 40:-0.958658 41:0.467432 42:0.207691 43:0.413744 44:0.512992 45:0.684008 46:0.671451 47:1 48:-0.0641082 49:-0.325417 50:0.300939 51:1 52:-0.634674 53:-1 54:-0.772855 55:-0.926061 56:-0.449131 57:0.801652 
-0.03125 -0.03125 0.03125 1:-1 2:-1 3:-0.577907 4:-0.359889 5:-0.737629 6:-0.547851 7:-0.262369 8:-0.63781 9:1 10:0.390661 11:-0.0071844 12:0.467029 13:-0.795099 14:0.876124 15:-0.506994 16:0.792374 17:-0.482352 18:-0.996648 19:0.0391006 20:-1 21:0.241544 22:-0.0253389 23:0.209815 24:-1 25:0.117716 26:-0.535951 27:-0.917008 28:-1 29:-0.240846 30:0.639391 31:0.205826 32:-0.600351 33:-0.599853 34:-0.482747 35:-1 36:1 37:-0.15955 38:1 39:0.197445 40:-0.783155 41:-1 42:1 43:-0.795394 44:-1 45:1 46:1 47:0.39124 48:-0.193456 49:-0.547809 50:0.131992 51:0.462107 52:-0.436953 53:-1 54:-1 55:-0.516153 56:-1 57:0.509544 
-0.03125 -0.03125 0.03125 1:0.232245 2:-0.264108 3:-1 4:-1 5:0.418822 6:-0.41727 7:0.425987 8:-0.53321 9:0.227207 10:-0.0618069 11:1 12:-0.394436 13:-0.471809 14:-0.0328229 15:-1 16:0.154982 17:-0.169893 18:-0.876438 19:-0.163034 20:-0.354818 21:1 22:0.820601 23:-0.480295 24:-0.227399 25:-0.423797 26:-0.601285 27:-0.293773 28:0.960561 29:-0.686957 30:0.58449 31:0.942462 32:-0.484933 33:-0.689075 34:1 35:-0.579494 36:-0.6318 37:0.593316 38:-0.355659 39:0.598627 40:-0.856496 41:-1 42:-0.53973 43:0.106686 44:-1 45:0.101287 46:0.00282428 47:-0.0956771 48:0.212694 49:-0.708635 50:1 51:-0.324497 52:-0.212246 53:-0.81603 54:0.471889 55:-0.280683 56:-0.649724 57:-0.0272659 
-0.03125 -0.03125 -0.03125 1:-0.234057 2:-0.368608 3:-0.0664349 4:-0.782165 5:0.900129 6:1 7:0.22349 8:-0.399244 9:0.137626 10:-0.0319302 11:-0.634109 12:0.388341 13:-0.54681 14:-0.585113 15:1 16:0.238704 17:0.155056 18:-0.72248 19:0.292577 20:-0.969287 21:-1 22:-0.261751 23:-0.108118 24:0.546811 25:-0.382029 26:-0.657901 27:1 28:-0.719655 29:-0.801737 30:-0.546839 31:1 32:-0.779037 33:-1 34:-0.42803 35:-0.458812 36:-0.52613 37:-1 38:0.105774 39:-1 40:1 41:-0.18434 42:-0.605087 43:-0.752452 44:-0.43931 45:-0.541102 46:-0.523715 47:-0.0360149 48:0.486396 49:1 50:-0.699743 51:-0.526864 52:-1 53:-0.68431 54:0.0103248 55:0.0208908 56:0.373761 57:-0.332302 
-0.03125 -0.03125 -0.03125 1:-0.69404 2:-0.433607 3:0.674778 4:-0.835911 5:-1 6:0.345525 7:-1 8:-0.101816 9:-0.781108 10:1 11:-0.0185597 12:0.447301 13:-0.491872 14:-0.255648 15:0.283716 16:1 17:0.538371 18:-1 19:0.0306387 20:-0.858338 21:-0.846071 22:-0.379957 23:1 24:0.982153 25:-0.33482 26:-0.846572 27:0.0713194 28:-1 29:0.371083 30:-1 31:0.0465052 32:-0.00892335 33:-0.604995 34:0.539263 35:-0.352701 36:-0.00813051 37:-0.65114 38:0.735749 39:-0.502956 40:-0.701266 41:-0.268309 42:-0.433225 43:-1 44:-0.49703 45:-0.353843 46:-0.911836 47:0.060521 48:1 49:0.906161 50:-0.760393 51:0.992512 52:-0.250338 53:-0.716809 54:0.132801 55:-0.3206 56:-0.561352 57:0.647007 
-0.03125 -0.03125 -0.03125 1:-0.683914 2:-0.549115 3:1 4:-0.74501 5:-0.0250988 6:0.338988 7:-1 8:0.930664 9:-0.588027 10:0.289302 11:-0.0253165 12:-0.162141 13:-0.514559 14:1 15:0.593305 16:0.857647 17:0.367096 18:-0.673269 19:1 20:-0.258588 21:-0.632388 22:-1 23:0.432989 24:0.420202 25:-1 26:-1 27:0.788425 28:-0.699703 29:-1 30:-1 31:0.249738 32:0.183514 33:-0.733145 34:0.531784 35:-0.806766 36:-0.492353 37:-0.701602 38:-0.407814 39:-0.574852 40:-0.17285 41:-0.563145 42:-0.153968 43:-0.720505 44:-0.0990163 45:-0.212239 46:0.0917455 47:-1 48:-0.3631 49:0.47292 50:0.604446 51:0.215218 52:-0.523816 53:-0.661842 54:0.0822221 55:-0.124301 56:-0.564562 57:0.0727921 
