svm_type c_svc
kernel_type rbf
gamma 0.0078125
nr_class 4
total_sv 12
rho -0.00253917 0.000908606 -0.00129201 0.00238964 0.000904577 -0.00391104
label 1 2 3 4
nr_sv 3 3 3 3
SV
0.03125 0.03125 0.03125 1:0.789428 2:1 3:0.92208 4:0.282529 5:-0.738828 6:-0.597683 7:-0.680582 8:1 9:1 10:-0.686101 11:-0.73794 12:0.782386 13:0.631407 14:0.6585 15:-0.43754 16:-1 17:-0.254886 18:-0.19011 19:-0.519557 20:-1 21:-0.508724 22:0.542549 23:-1 24:0.508768 25:0.517187 26:-0.662519 27:-0.794572 28:-0.523455 29:-0.591519 30:0.406221 31:0.564149 32:0.92051 33:-0.693633 34:-0.628127 35:-1 36:-0.455761 37:-0.70599 38:-0.668646 39:-1 40:0.790601 41:-1 42:-0.311659 43:-1 44:1 45:-0.275756 46:0.153842 47:-0.293293 48:-1 49:-0.705439 50:-0.377917 51:-1 52:-0.183573 53:0.633944 54:-0.0343613 55:-0.0937881 56:-0.285144 57:0.110458 58:-0.107196 59:0.323288 60:-0.176384 
0.03125 0.03125 0.03125 1:0.535744 2:0.868611 3:0.559215 4:0.763031 5:-0.446664 6:-0.556019 7:-1 8:0.655168 9:0.273521 10:-0.480411 11:-1 12:1 13:0.575156 14:0.442289 15:-0.0689754 16:-1 17:0.0804598 18:1 19:0.0603321 20:-0.809499 21:-0.431265 22:-0.74397 23:0.90271 24:-0.0010815 25:-0.826404 26:0.117246 27:-0.354947 28:0.0517904 29:-0.887325 30:0.241342 31:-0.714222 32:-1 33:-0.661948 34:-0.746879 35:-0.917068 36:-0.399471 37:-0.342288 38:-0.634374 39:-0.667396 40:1 41:-0.211181 42:0.0126872 43:-0.954691 44:0.0185699 45:-0.467215 46:0.159104 47:0.262937 48:-0.5289 49:-0.593703 50:0.301063 51:-0.22916 52:0.201129 53:0.57758 54:-0.733638 55:1 56:-0.474121 57:0.34812 58:-0.722608 59:-0.72621 60:-0.0910912 
0.03125 0.03125 0.03125 1:0.178225 2:-0.192872 3:1 4:-0.398837 5:-0.920438 6:-0.0462727 7:-0.242834 8:0.777792 9:-0.864714 10:-0.813959 11:0.242469 12:-0.906096 13:0.450151 14:1 15:1 16:-0.425941 17:-0.0632978 18:-0.620903 19:0.13893 20:-0.386108 21:-0.665942 22:0.507041 23:-0.182573 24:-0.642333 25:0.0447521 26:1 27:-0.670302 28:-0.435125 29:-0.515862 30:1 31:0.602643 32:-0.37556 33:-0.878959 34:-0.899836 35:-0.851666 36:0.290093 37:1 38:-1 39:-0.295782 40:0.36567 41:-1 42:-0.456153 43:0.11961 44:-0.0883204 45:-0.141648 46:-0.624536 47:-0.136078 48:-0.927661 49:-0.476331 50:-0.228076 51:0.248121 52:-0.354953 53:0.936525 54:-1 55:0.611159 56:-0.152774 57:-0.824324 58:-0.66655 59:0.654827 60:-0.511861 
-0.03125 0.03125 0.03125 1:-0.269386 2:-1 3:-0.538068 4:1 5:1 6:-1 7:0.956332 8:-1 9:0.249983 10:0.730301 11:0.284066 12:-0.462699 13:-0.500424 14:-0.282066 15:-1 16:-0.11005 17:0.484666 18:0.343633 19:-0.411501 20:0.26889 21:-0.951876 22:0.601935 23:-1 24:-1 25:-0.976785 26:-1 27:1 28:-1 29:-0.74984 30:-1 31:-0.163599 32:0.871049 33:-0.1244 34:-0.160383 35:-0.819887 36:1 37:-0.392327 38:-0.188242 39:0.0745626 40:-0.82075 41:-0.562174 42:-1 43:-0.901419 44:-1 45:-0.408627 46:0.345402 47:0.937549 48:1 49:-0.819606 50:0.795194 51:0.301076 52:1 53:-1 54:-0.11291 55:-1 56:-0.416293 57:-0.77879 58:-0.639311 59:1 60:0.513337 
-0.03125 0.03125 0.03125 1:-0.309037 2:-0.22071 3:-0.268276 4:0.224446 5:0.623081 6:-0.766963 7:0.110112 8:-1 9:0.568592 10:1 11:0.51788 12:0.303169 13:-0.173229 14:0.096162 15:-0.0226078 16:-0.158348 17:0.388315 18:0.0212589 19:0.113161 20:1 21:0.477408 22:0.44288 23:-0.201024 24:0.747702 25:-1 26:-0.609037 27:-0.688251 28:-0.447935 29:-1 30:-0.674203 31:0.145505 32:0.169011 33:-1 34:-0.990553 35:0.0546386 36:0.260973 37:0.0183714 38:-0.23227 39:0.320401 40:-0.452315 41:-1 42:-0.734214 43:0.0843941 44:-1 45:-0.720351 46:0.421076 47:-0.158863 48:-0.0339212 49:-0.82939 50:1 51:-0.560642 52:0.260973 53:-0.763405 54:0.677832 55:-1 56:0.104096 57:-0.85517 58:-0.287321 59:0.606818 60:-0.522931 
-0.03125 0.03125 0.03125 1:0.0261879 2:-0.351744 3:0.989965 4:0.0486996 5:0.656412 6:-0.792352 7:0.64869 8:0.03232 9:0.527731 10:-0.0278459 11:0.623214 12:0.126223 13:-0.263231 14:-0.0433838 15:-0.709698 16:1 17:-0.00789237 18:0.246589 19:-1 20:0.604013 21:-1 22:-0.846088 23:-0.644036 24:-0.37698 25:-0.863709 26:-0.651633 27:-0.0802989 28:-0.0160434 29:-0.894592 30:-0.709698 31:1 32:1 33:-0.789159 34:-1 35:-0.560738 36:0.123729 37:-0.13318 38:-0.657957 39:1 40:-0.537405 41:0.106872 42:-0.526285 43:-0.985869 44:-1 45:-0.750819 46:1 47:-0.265907 48:-0.181596 49:-0.695937 50:0.205013 51:-0.300393 52:0.966421 53:-1 54:-0.00321365 55:-1 56:0.967731 57:-1 58:1 59:0.843082 60:-1 
-0.03125 -0.03125 0.03125 1:-0.0317868 2:0.0212332 3:-0.999529 4:-0.808199 5:-0.409223 6:-0.580173 7:1 8:0.739136 9:-0.754336 10:-1 11:-0.453069 12:-0.589909 13:-0.432558 14:-0.672379 15:-0.0217438 16:-0.494575 17:-0.71365 18:-0.596349 19:0.336962 20:-0.279365 21:1 22:1 23:-0.0403461 24:-0.790112 25:-0.310849 26:0.408675 27:-0.298609 28:0.657659 29:0.918095 30:0.956512 31:0.790057 32:-0.515236 33:0.207691 34:-0.244105 35:-0.68652 36:-0.62143 37:-0.909151 38:-0.538938 39:-0.125423 40:0.409122 41:-0.254095 42:-0.201938 43:1 44:0.284299 45:-0.664112 46:-1 47:-0.748565 48:-0.304191 49:0.331926 50:-0.0613175 51:0.523147 52:-0.62136 53:0.705001 54:-0.832087 55:0.576127 56:-1 57:0.210341 58:-0.763817 59:-1 60:-1 
-0.03125 -0.03125 0.03125 1:1 2:-0.553349 3:-0.124019 4:-0.128189 5:-0.399806 6:-0.291773 7:-0.518011 8:-0.245568 9:-0.242396 10:-0.76317 11:0.713519 12:-0.969028 13:1 14:-1 15:-0.717114 16:-0.147374 17:1 18:-0.661761 19:-0.395879 20:-0.826339 21:-0.629897 22:-0.162238 23:0.0406992 24:-0.848204 25:-0.526044 26:-0.490755 27:-0.790536 28:0.438175 29:-0.589114 30:0.131615 31:-0.292829 32:-0.0564633 33:-0.486399 34:-0.399611 35:-0.995182 36:0.368678 37:-0.433444 38:1 39:0.387556 40:-0.385539 41:-0.101199 42:0.15395 43:-0.997421 44:-0.148855 45:-1 46:-0.0676825 47:-1 48:-0.801369 49:1 50:0.440823 51:-0.662368 52:-0.452487 53:-0.38365 54:-0.0286756 55:-1 56:-0.640467 57:0.124266 58:-0.271769 59:-0.00383844 60:0.242804 
-0.03125 -0.03125 0.03125 1:-1 2:-0.939802 3:-0.446476 4:-1 5:-0.560927 6:0.125686 7:-0.553175 8:-0.300608 9:-1 10:-0.560855 11:0.466488 12:-0.831224 13:-1 14:0.362224 15:-0.606595 16:-0.322401 17:-1 18:-0.457909 19:-0.32786 20:-1 21:0.488464 22:-0.989102 23:-1 24:0.266358 25:0.306153 26:-0.527907 27:0.411714 28:1 29:1 30:0.967168 31:-0.891791 32:-0.164848 33:1 34:0.702881 35:1 36:0.522781 37:-1 38:0.854259 39:-0.890096 40:0.654112 41:1 42:-0.67906 43:-0.825268 44:-0.139127 45:-1 46:-0.675195 47:-0.548496 48:-0.298296 49:-0.587935 50:-0.432468 51:1 52:-1 53:1 54:0.350844 55:-1 56:1 57:-0.579318 58:-1 59:-0.840905 60:-0.423933 
-0.03125 -0.03125 -0.03125 1:0.733133 2:-0.312026 3:-0.216958 4:-0.750473 5:-0.775584 6:-0.261645 7:-0.853457 8:-0.311872 9:-0.107064 10:-0.783984 11:-0.759544 12:-1 13:-0.11121 14:-0.508757 15:-0.612931 16:0.333313 17:-0.245246 18:-1 19:-0.228475 20:-0.683175 21:-0.684988 22:-0.791233 23:-0.0506754 24:-0.169332 25:1 26:-0.535511 27:-0.541996 28:-0.78137 29:-0.344078 30:0.548348 31:-0.271631 32:-0.187054 33:-0.29723 34:0.708515 35:-0.147412 36:-0.750314 37:-0.577271 38:-0.391924 39:-0.643411 40:-0.924499 41:0.147863 42:1 43:-0.433074 44:0.270475 45:-0.00321365 46:-0.689057 47:1 48:-0.315882 49:0.250033 50:-0.939649 51:-0.415186 52:-0.250871 53:-0.437766 54:-0.335455 55:-0.168494 56:-0.125446 57:0.448002 58:-0.220367 59:-0.850988 60:-0.43321 
-0.03125 -0.03125 -0.03125 1:-0.586186 2:-0.703444 3:-1 4:-0.809768 5:-0.87535 6:0.116519 7:-0.556773 8:-0.30624 9:-0.137046 10:-0.673323 11:1 12:0.137984 13:-0.787787 14:-0.162064 15:-0.414645 16:0.176142 17:-0.715239 18:-0.202021 19:1 20:0.197817 21:-0.218508 22:-1 23:-0.282246 24:-0.581306 25:0.898374 26:-0.765855 27:-1 28:-0.669371 29:-0.220684 30:-0.219526 31:0.302142 32:-0.859946 33:-0.149837 34:1 35:-0.689595 36:0.887975 37:-0.725164 38:-0.310316 39:0.0626411 40:-1 41:0.487785 42:-0.840822 43:0.689452 44:-0.359603 45:0.339843 46:0.275619 47:-0.0624694 48:-0.577959 49:-0.795645 50:-1 51:-0.407755 52:-0.622405 53:-0.291522 54:0.172363 55:0.886201 56:-0.00814347 57:1 58:-0.0514015 59:-0.380235 60:1 
-0.03125 -0.03125 -0.03125 1:-0.835289 2:0.0103285 3:-0.310705 4:-0.928074 5:-1 6:1 7:-0.735372 8:-0.171584 9:-0.46411 10:-0.219793 11:0.0856089 12:-0.45013 13:-0.746571 14:0.342208 15:-0.0679675 16:-0.197408 17:-0.0894645 18:-0.892997 19:-0.402891 20:-0.284802 21:-0.637183 22:-0.346027 23:1 24:1 25:0.766556 26:-0.440816 27:-0.631656 28:0.18453 29:0.0152543 30:-0.300958 31:-1 32:0.0895212 33:0.0152543 34:0.411109 35:-0.142081 36:-1 37:-0.709886 38:-0.176366 39:-0.362373 40:-0.954561 41:0.480556 42:0.330631 43:-0.349184 44:-0.745102 45:1 46:-0.135581 47:0.381681 48:-0.743618 49:-1 50:-0.963679 51:-0.780834 52:0.127282 53:-0.323155 54:1 55:0.877037 56:0.381889 57:-0.283196 58:-0.911431 59:0.0162131 60:0.0236162 
